#mdl#200
#rdr#12/0
1:*,
18:u:Wrd-1 X=%x[ 0,0],
18:u:wrd-1LL=%X[-2,0],
18:u:wrd-1 L=%X[-1,0],
18:u:wrd-1 X=%X[ 0,0],
18:u:wrd-1 R=%X[ 1,0],
18:u:wrd-1RR=%X[ 2,0],
18:*:Pos-1LL=%x[-2,0],
18:*:Pos-1 L=%x[-1,0],
18:*:Pos-1 X=%x[ 0,0],
18:*:Pos-1 R=%x[ 1,0],
18:*:Pos-1RR=%x[ 2,0],
#qrk#7
1:O,
4:B-TS,
4:I-TS,
4:B-LP,
4:I-LP,
4:B-TP,
4:I-TP,
#qrk#126
1:*,
17:u:Wrd-1 X=Where's,
14:u:wrd-1LL=_x-2,
14:u:wrd-1 L=_x-1,
17:u:wrd-1 X=where's,
14:u:wrd-1 R=will,
11:u:wrd-1RR=(,
14:*:Pos-1LL=_x-2,
14:*:Pos-1 L=_x-1,
17:*:Pos-1 X=Where's,
14:*:Pos-1 R=Will,
11:*:Pos-1RR=(,
14:*:Pos-1LL=_x-1,
17:*:Pos-1 L=Where's,
14:*:Pos-1 X=Will,
11:*:Pos-1 R=(,
14:u:wrd-1LL=will,
11:u:wrd-1 L=(,
11:u:wrd-1RR=),
14:*:Pos-1LL=Will,
11:*:Pos-1 L=(,
11:*:Pos-1RR=),
11:u:wrd-1LL=(,
11:u:wrd-1 R=),
11:*:Pos-1LL=(,
11:*:Pos-1 R=),
11:*:Pos-1 X=),
17:u:Wrd-1 X=Getting,
17:u:wrd-1LL=morning,
11:u:wrd-1 L=),
17:u:wrd-1 X=getting,
11:u:wrd-1 R=a,
17:u:wrd-1RR=haircut,
17:*:Pos-1LL=morning,
11:*:Pos-1 L=),
17:*:Pos-1 X=Getting,
11:*:Pos-1 R=a,
17:*:Pos-1RR=haircut,
11:u:Wrd-1 X=a,
11:u:wrd-1LL=),
17:u:wrd-1 L=getting,
11:u:wrd-1 X=a,
17:u:wrd-1 R=haircut,
12:u:wrd-1RR=at,
11:*:Pos-1LL=),
17:*:Pos-1 L=Getting,
11:*:Pos-1 X=a,
17:*:Pos-1 R=haircut,
12:*:Pos-1RR=at,
17:u:Wrd-1 X=haircut,
17:u:wrd-1LL=getting,
11:u:wrd-1 L=a,
17:u:wrd-1 X=haircut,
12:u:wrd-1 R=at,
11:u:wrd-1RR=8,
17:*:Pos-1LL=Getting,
11:*:Pos-1 L=a,
17:*:Pos-1 X=haircut,
12:*:Pos-1 R=at,
11:*:Pos-1RR=8,
11:*:Pos-1LL=a,
17:*:Pos-1 L=haircut,
12:*:Pos-1 X=at,
11:*:Pos-1 R=8,
12:*:Pos-1RR=on,
12:u:wrd-1 L=at,
12:u:wrd-1 R=on,
12:*:Pos-1 L=at,
12:*:Pos-1 R=on,
12:*:Pos-1LL=at,
12:*:Pos-1 X=on,
11:*:Pos-1RR=,,
14:u:wrd-1RR=i'll,
12:*:Pos-1 L=on,
11:*:Pos-1 R=,,
14:*:Pos-1RR=I'll,
14:*:Pos-1 R=I'll,
11:*:Pos-1 L=,,
12:*:Pos-1RR=be,
13:u:wrd-1RR=the,
13:*:Pos-1RR=the,
13:*:Pos-1 R=the,
13:*:Pos-1 X=the,
11:*:Pos-1RR=.,
11:*:Pos-1 R=.,
11:u:Wrd-1 X=.,
11:u:wrd-1 X=.,
14:u:wrd-1 R=_x+1,
14:u:wrd-1RR=_x+2,
11:*:Pos-1 X=.,
14:*:Pos-1 R=_x+1,
14:*:Pos-1RR=_x+2,
13:u:Wrd-1 X=WID,
17:u:wrd-1LL=project,
13:u:wrd-1 X=wid,
14:u:wrd-1 R=over,
15:u:wrd-1RR=lunch,
17:*:Pos-1LL=project,
13:*:Pos-1 X=WID,
14:*:Pos-1 R=over,
15:*:Pos-1RR=lunch,
13:*:Pos-1 L=WID,
14:*:Pos-1 X=over,
15:*:Pos-1 R=lunch,
19:u:wrd-1RR=afternoon,
19:*:Pos-1RR=afternoon,
19:u:wrd-1 R=afternoon,
19:*:Pos-1 R=afternoon,
19:*:Pos-1 X=afternoon,
13:u:wrd-1LL=and,
13:*:Pos-1LL=and,
14:u:Wrd-1 X=home,
12:u:wrd-1 L=go,
14:u:wrd-1 X=home,
12:*:Pos-1 L=go,
14:*:Pos-1 X=home,
12:*:Pos-1LL=go,
14:*:Pos-1 L=home,
13:u:wrd-1 R=for,
13:*:Pos-1 R=for,
13:u:Wrd-1 X=for,
13:u:wrd-1 X=for,
13:*:Pos-1 X=for,
14:*:Pos-1LL=home,
13:*:Pos-1 L=for,
13:*:Pos-1LL=for,
0=0x1.8e33a2fd6f873p-1
7=0x1.649ba3ca2f3b9p+1
9=-0x1.2f70aa59ced81p-2
10=0x1.3ff183c62bab4p-1
11=-0x1.18e198a96e26ap-1
13=-0x1.28d0517f465e6p-1
14=-0x1.2411b2b574844p-4
16=0x1.62c86b80a3b35p-1
32=0x1.633c56ca7b32bp-3
33=0x1.3051b39edff61p-3
39=0x1.789729c0cd9f8p-3
42=-0x1.7e3a41f946bbap-2
48=0x1.3790408464fc4p+1
55=0x1.a0bf58ff293c5p-1
56=0x1.ff2aa1401e44fp-7
63=0x1.ff2aa1401e44fp-7
70=0x1.ff2aa1401e44fp-7
77=0x1.ff2aa1401e44fp-7
84=0x1.ff2aa1401e44fp-7
91=0x1.ff2aa1401e44fp-7
98=0x1.ff2aa1401e44fp-7
154=0x1.ff2aa1401e44fp-7
210=0x1.ff2aa1401e44fp-7
266=0x1.ff2aa1401e44fp-7
322=0x1.ff2aa1401e44fp-7
385=0x1.9db34b476cac9p-4
441=0x1.9db34b476cac9p-4
497=0x1.9db34b476cac9p-4
553=0x1.9db34b476cac9p-4
603=0x1.7d4053704c1f6p-2
610=0x1.7d4053704c1f6p-2
616=-0x1.5f4b2ac1a7bc4p-3
617=0x1.ac0cf56353dp-2
624=0x1.7d4053704c1f6p-2
631=0x1.1a00808ffa04ep-1
680=0x1.7d4053704c1f6p-2
687=0x1.1a00808ffa04ep-1
735=-0x1.5f4b2ac1a7bc4p-3
736=0x1.ac0cf56353dp-2
743=0x1.45f98f5256a32p-1
791=-0x1.3b477e8fd034p-6
793=0x1.fad0569251885p-2
798=-0x1.4a6d7c9aa700ap-3
800=0x1.56bb2559f6369p-1
805=-0x1.3b477e8fd034p-6
807=0x1.fad0569251885p-2
821=0x1.12d9e18df7729p+0
861=-0x1.4a6d7c9aa700ap-3
863=0x1.56bb2559f6369p-1
877=0x1.1fe33b9565759p+0
924=-0x1.e0a2db06b7055p-4
938=0x1.f861abad73e4fp+0
976=0x1.8ced0875755acp-3
983=0x1.3c8e11117c114p-3
990=0x1.27297d85da71dp-3
997=0x1.71e04121d0a82p-3
1004=0x1.e0d54e792639p-4
1011=0x1.8ced0875755acp-3
1018=0x1.3c8e11117c114p-3
1025=0x1.4830bcb19d5e7p-2
1074=0x1.27297d85da71dp-3
1081=0x1.465f0592e8dfcp-2
1130=0x1.8ced0875755acp-3
1137=0x1.635ddb03cc347p-2
1186=0x1.e0d54e792639p-4
1193=0x1.3adffe392b5fp-2
1242=0x1.8ced0875755acp-3
1249=0x1.635ddb03cc347p-2
1299=0x1.7f6a7373e3986p-4
1306=0x1.1a62b5e6426e9p-3
1313=0x1.404c9d78f1691p-3
1320=0x1.7f6a7373e3986p-4
1327=0x1.5d8adab16e246p-3
1334=0x1.35e040b74fb86p-3
1341=0x1.1a62b5e6426e9p-3
1369=0x1.b1a41a14861bbp-2
1397=0x1.5d8adab16e246p-3
1425=0x1.b443964a7e90cp-2
1453=0x1.7f6a7373e3986p-4
1481=0x1.afec74aa81b5ap-2
1509=0x1.5d8adab16e246p-3
1537=0x1.b443964a7e90cp-2
1565=0x1.35e040b74fb86p-3
1593=0x1.b3311ea2c27d2p-2
1621=0x1.82a5bfbd9ca69p-3
1628=0x1.677d5dcc5fbd7p-3
1635=0x1.f5d9cfad11d42p-4
1642=0x1.82a5bfbd9ca69p-3
1649=0x1.528b4a7298933p-3
1656=0x1.82a5bfbd9ca69p-3
1663=0x1.82a5bfbd9ca69p-3
1698=0x1.cda71fb714f84p-2
1719=0x1.f5d9cfad11d42p-4
1754=0x1.c937fb4cf3394p-2
1775=0x1.82a5bfbd9ca69p-3
1810=0x1.cda71fb714f84p-2
1831=0x1.528b4a7298933p-3
1866=0x1.cc005e028b0d5p-2
1887=0x1.82a5bfbd9ca69p-3
1922=0x1.cda71fb714f84p-2
1974=0x1.69cf0144c114bp-2
2030=0x1.e43e28c8ab36bp-2
2086=0x1.d62963a2ad734p-2
2142=0x1.e43e28c8ab36bp-2
2170=-0x1.380bc205a0d68p+0
2191=0x1.dce394ff407b1p-3
2198=0x1.679466dbfafabp-2
2219=-0x1.1bb104829b84dp-1
2222=0x1.0088cfd37636fp-4
2231=0x1.71d506684e87ep-2
2233=-0x1.1bb104829b84dp-1
2236=0x1.0088cfd37636fp-4
2240=-0x1.f5aac3090c4c8p-2
2243=0x1.0ef23ccc8643fp-3
2294=0x1.71d506684e87ep-2
2301=0x1.b26fc6715d2b2p+0
2352=-0x1.bd9598a66c6e3p-3
2373=0x1.3304b49412f4dp-2
2449=0x1.8ed95011a203bp-1
2505=0x1.95d051b1565eep-1
2513=-0x1.30b0c9bb2966ep-2
2519=0x1.6ad6646f27d4ep-1
2575=0x1.3738ccef6db5ap-3
2631=0x1.258dc77711c88p-3
2632=-0x1.30b0c9bb2966ep-2
2638=0x1.6ad6646f27d4ep-1
2639=-0x1.3c7c5326b2498p-7
2687=0x1.10538afb44881p+2
2695=-0x1.794b54013dd11p-3
2737=0x1.52ca679d9ff9cp+0
2751=0x1.24130d2ab8ef5p-7
2849=0x1.040a586b7aea3p-2
2859=0x1.3beef773afdb8p-4
2866=0x1.3beef773afdb8p-4
2873=0x1.2150dc05faffcp-3
2952=0x1.ab335e0d64ca7p-2
3023=0x1.a089e4b1ad2fap-4
3079=0x1.bbf18bc4a1921p-4
3142=0x1.ab350f1abb4p-14
3143=0x1.fb85fca047774p-11
3150=0x1.fb85fca047774p-11
3157=0x1.28aeb2d54a10ep-5
3164=0x1.28aeb2d54a10ep-5
3171=0x1.fb85fca047774p-11
3227=0x1.28aeb2d54a10ep-5
3234=0x1.eb306d723c016p-3
3283=0x1.28aeb2d54a10ep-5
3290=0x1.eb306d723c016p-3
3342=0x1.09a0fc0eb69fdp-3
3349=0x1.09a0fc0eb69fdp-3
3356=0x1.09a0fc0eb69fdp-3
3363=0x1.620e1c47d4ffap-4
3370=0x1.09a0fc0eb69fdp-3
3377=0x1.09a0fc0eb69fdp-3
3384=0x1.26470494d1383p-3
3433=0x1.09a0fc0eb69fdp-3
3440=0x1.26470494d1383p-3
3489=0x1.620e1c47d4ffap-4
3496=0x1.1f49a6fa2b1c2p-3
3545=0x1.09a0fc0eb69fdp-3
3552=0x1.26470494d1383p-3
3626=0x1.38e57af6d5d7p-2
3682=0x1.30f40d85b021cp-2
3738=0x1.38e57af6d5d7p-2
3771=0x1.fc43a74eb491dp-6
3778=0x1.fc43a74eb491dp-6
3806=0x1.18cf9e63e89f2p-1
3829=-0x1.93ee958a6dbc9p-4
3836=-0x1.93ee958a6dbc9p-4
3884=0x1.cbdf8e4f6c4f1p-4
3947=0x1.f9c072fc4be3p-9
3951=0x1.a743359b3ca04p-4
3958=0x1.a743359b3ca04p-4
3965=0x1.1f0176bceb76ap-3
4011=-0x1.423ce13d979b5p-6
4014=0x1.0b55ff85cd265p-3
4018=-0x1.423ce13d979b5p-6
4021=0x1.0b55ff85cd265p-3
4025=-0x1.423ce13d979b5p-6
4028=0x1.0b55ff85cd265p-3
4032=-0x1.423ce13d979b5p-6
4035=0x1.0b55ff85cd265p-3
4042=0x1.48fa1b201ffecp-3
4088=-0x1.423ce13d979b5p-6
4091=0x1.0b55ff85cd265p-3
4098=0x1.48fa1b201ffecp-3
4177=0x1.aec3adefc82b1p-2
4233=0x1.aec3adefc82b1p-2
4256=-0x1.529560e9109bfp-5
4259=0x1.299df0b7d00ep-2
4263=-0x1.529560e9109bfp-5
4266=0x1.299df0b7d00ep-2
4273=0x1.89914bc1c2cap-2
4324=0x1.89756448266e2p-6
4331=0x1.89756448266e2p-6
4338=0x1.89756448266e2p-6
4366=0x1.17cf80647795fp-1
4437=0x1.d2a38448de2c8p-4
4493=0x1.c3f2eb269de5cp-4
4556=0x1.23f89f6fc8e8p-10
