#mdl#200
#rdr#12/0
1:*,
18:u:Wrd-1 X=%x[ 0,0],
18:u:wrd-1LL=%X[-2,0],
18:u:wrd-1 L=%X[-1,0],
18:u:wrd-1 X=%X[ 0,0],
18:u:wrd-1 R=%X[ 1,0],
18:u:wrd-1RR=%X[ 2,0],
18:*:Pos-1LL=%x[-2,0],
18:*:Pos-1 L=%x[-1,0],
18:*:Pos-1 X=%x[ 0,0],
18:*:Pos-1 R=%x[ 1,0],
18:*:Pos-1RR=%x[ 2,0],
#qrk#7
1:O,
4:B-TS,
4:I-TS,
4:B-LP,
4:I-LP,
4:B-TP,
4:I-TP,
#qrk#1114
1:*,
17:u:Wrd-1 X=Where's,
14:u:wrd-1LL=_x-2,
14:u:wrd-1 L=_x-1,
17:u:wrd-1 X=where's,
14:u:wrd-1 R=will,
11:u:wrd-1RR=(,
14:*:Pos-1LL=_x-2,
14:*:Pos-1 L=_x-1,
17:*:Pos-1 X=Where's,
14:*:Pos-1 R=Will,
11:*:Pos-1RR=(,
14:u:Wrd-1 X=Will,
14:u:wrd-1LL=_x-1,
17:u:wrd-1 L=where's,
14:u:wrd-1 X=will,
11:u:wrd-1 R=(,
16:u:wrd-1RR=friday,
14:*:Pos-1LL=_x-1,
17:*:Pos-1 L=Where's,
14:*:Pos-1 X=Will,
11:*:Pos-1 R=(,
16:*:Pos-1RR=Friday,
11:u:Wrd-1 X=(,
17:u:wrd-1LL=where's,
14:u:wrd-1 L=will,
11:u:wrd-1 X=(,
16:u:wrd-1 R=friday,
17:u:wrd-1RR=morning,
17:*:Pos-1LL=Where's,
14:*:Pos-1 L=Will,
11:*:Pos-1 X=(,
16:*:Pos-1 R=Friday,
17:*:Pos-1RR=morning,
16:u:Wrd-1 X=Friday,
14:u:wrd-1LL=will,
11:u:wrd-1 L=(,
16:u:wrd-1 X=friday,
17:u:wrd-1 R=morning,
11:u:wrd-1RR=),
14:*:Pos-1LL=Will,
11:*:Pos-1 L=(,
16:*:Pos-1 X=Friday,
17:*:Pos-1 R=morning,
11:*:Pos-1RR=),
17:u:Wrd-1 X=morning,
11:u:wrd-1LL=(,
16:u:wrd-1 L=friday,
17:u:wrd-1 X=morning,
11:u:wrd-1 R=),
17:u:wrd-1RR=getting,
11:*:Pos-1LL=(,
16:*:Pos-1 L=Friday,
17:*:Pos-1 X=morning,
11:*:Pos-1 R=),
17:*:Pos-1RR=Getting,
11:u:Wrd-1 X=),
16:u:wrd-1LL=friday,
17:u:wrd-1 L=morning,
11:u:wrd-1 X=),
17:u:wrd-1 R=getting,
11:u:wrd-1RR=a,
16:*:Pos-1LL=Friday,
17:*:Pos-1 L=morning,
11:*:Pos-1 X=),
17:*:Pos-1 R=Getting,
11:*:Pos-1RR=a,
17:u:Wrd-1 X=Getting,
17:u:wrd-1LL=morning,
11:u:wrd-1 L=),
17:u:wrd-1 X=getting,
11:u:wrd-1 R=a,
17:u:wrd-1RR=haircut,
17:*:Pos-1LL=morning,
11:*:Pos-1 L=),
17:*:Pos-1 X=Getting,
11:*:Pos-1 R=a,
17:*:Pos-1RR=haircut,
11:u:Wrd-1 X=a,
11:u:wrd-1LL=),
17:u:wrd-1 L=getting,
11:u:wrd-1 X=a,
17:u:wrd-1 R=haircut,
12:u:wrd-1RR=at,
11:*:Pos-1LL=),
17:*:Pos-1 L=Getting,
11:*:Pos-1 X=a,
17:*:Pos-1 R=haircut,
12:*:Pos-1RR=at,
17:u:Wrd-1 X=haircut,
17:u:wrd-1LL=getting,
11:u:wrd-1 L=a,
17:u:wrd-1 X=haircut,
12:u:wrd-1 R=at,
11:u:wrd-1RR=8,
17:*:Pos-1LL=Getting,
11:*:Pos-1 L=a,
17:*:Pos-1 X=haircut,
12:*:Pos-1 R=at,
11:*:Pos-1RR=8,
12:u:Wrd-1 X=at,
11:u:wrd-1LL=a,
17:u:wrd-1 L=haircut,
12:u:wrd-1 X=at,
11:u:wrd-1 R=8,
12:u:wrd-1RR=on,
11:*:Pos-1LL=a,
17:*:Pos-1 L=haircut,
12:*:Pos-1 X=at,
11:*:Pos-1 R=8,
12:*:Pos-1RR=on,
11:u:Wrd-1 X=8,
17:u:wrd-1LL=haircut,
12:u:wrd-1 L=at,
11:u:wrd-1 X=8,
12:u:wrd-1 R=on,
17:*:Pos-1LL=haircut,
12:*:Pos-1 L=at,
11:*:Pos-1 X=8,
12:*:Pos-1 R=on,
12:u:Wrd-1 X=on,
12:u:wrd-1LL=at,
11:u:wrd-1 L=8,
12:u:wrd-1 X=on,
11:u:wrd-1RR=,,
12:*:Pos-1LL=at,
11:*:Pos-1 L=8,
12:*:Pos-1 X=on,
11:*:Pos-1RR=,,
11:u:wrd-1LL=8,
12:u:wrd-1 L=on,
11:u:wrd-1 R=,,
14:u:wrd-1RR=i'll,
11:*:Pos-1LL=8,
12:*:Pos-1 L=on,
11:*:Pos-1 R=,,
14:*:Pos-1RR=I'll,
11:u:Wrd-1 X=,,
12:u:wrd-1LL=on,
11:u:wrd-1 X=,,
14:u:wrd-1 R=i'll,
18:u:wrd-1RR=probably,
12:*:Pos-1LL=on,
11:*:Pos-1 X=,,
14:*:Pos-1 R=I'll,
18:*:Pos-1RR=probably,
14:u:Wrd-1 X=I'll,
11:u:wrd-1 L=,,
14:u:wrd-1 X=i'll,
18:u:wrd-1 R=probably,
12:u:wrd-1RR=be,
11:*:Pos-1 L=,,
14:*:Pos-1 X=I'll,
18:*:Pos-1 R=probably,
12:*:Pos-1RR=be,
18:u:Wrd-1 X=probably,
11:u:wrd-1LL=,,
14:u:wrd-1 L=i'll,
18:u:wrd-1 X=probably,
12:u:wrd-1 R=be,
11:*:Pos-1LL=,,
14:*:Pos-1 L=I'll,
18:*:Pos-1 X=probably,
12:*:Pos-1 R=be,
12:u:Wrd-1 X=be,
14:u:wrd-1LL=i'll,
18:u:wrd-1 L=probably,
12:u:wrd-1 X=be,
13:u:wrd-1RR=few,
14:*:Pos-1LL=I'll,
18:*:Pos-1 L=probably,
12:*:Pos-1 X=be,
13:*:Pos-1RR=few,
18:u:wrd-1LL=probably,
12:u:wrd-1 L=be,
13:u:wrd-1 R=few,
17:u:wrd-1RR=minutes,
18:*:Pos-1LL=probably,
12:*:Pos-1 L=be,
13:*:Pos-1 R=few,
17:*:Pos-1RR=minutes,
13:u:Wrd-1 X=few,
12:u:wrd-1LL=be,
13:u:wrd-1 X=few,
17:u:wrd-1 R=minutes,
14:u:wrd-1RR=late,
12:*:Pos-1LL=be,
13:*:Pos-1 X=few,
17:*:Pos-1 R=minutes,
14:*:Pos-1RR=late,
17:u:Wrd-1 X=minutes,
13:u:wrd-1 L=few,
17:u:wrd-1 X=minutes,
14:u:wrd-1 R=late,
13:u:wrd-1RR=due,
13:*:Pos-1 L=few,
17:*:Pos-1 X=minutes,
14:*:Pos-1 R=late,
13:*:Pos-1RR=due,
14:u:Wrd-1 X=late,
13:u:wrd-1LL=few,
17:u:wrd-1 L=minutes,
14:u:wrd-1 X=late,
13:u:wrd-1 R=due,
12:u:wrd-1RR=to,
13:*:Pos-1LL=few,
17:*:Pos-1 L=minutes,
14:*:Pos-1 X=late,
13:*:Pos-1 R=due,
12:*:Pos-1RR=to,
13:u:Wrd-1 X=due,
17:u:wrd-1LL=minutes,
14:u:wrd-1 L=late,
13:u:wrd-1 X=due,
12:u:wrd-1 R=to,
13:u:wrd-1RR=the,
17:*:Pos-1LL=minutes,
14:*:Pos-1 L=late,
13:*:Pos-1 X=due,
12:*:Pos-1 R=to,
13:*:Pos-1RR=the,
12:u:Wrd-1 X=to,
14:u:wrd-1LL=late,
13:u:wrd-1 L=due,
12:u:wrd-1 X=to,
13:u:wrd-1 R=the,
19:u:wrd-1RR=vagueries,
14:*:Pos-1LL=late,
13:*:Pos-1 L=due,
12:*:Pos-1 X=to,
13:*:Pos-1 R=the,
19:*:Pos-1RR=vagueries,
13:u:Wrd-1 X=the,
13:u:wrd-1LL=due,
12:u:wrd-1 L=to,
13:u:wrd-1 X=the,
19:u:wrd-1 R=vagueries,
12:u:wrd-1RR=of,
13:*:Pos-1LL=due,
12:*:Pos-1 L=to,
13:*:Pos-1 X=the,
19:*:Pos-1 R=vagueries,
12:*:Pos-1RR=of,
19:u:Wrd-1 X=vagueries,
12:u:wrd-1LL=to,
13:u:wrd-1 L=the,
19:u:wrd-1 X=vagueries,
12:u:wrd-1 R=of,
13:u:wrd-1RR=bus,
12:*:Pos-1LL=to,
13:*:Pos-1 L=the,
19:*:Pos-1 X=vagueries,
12:*:Pos-1 R=of,
13:*:Pos-1RR=bus,
12:u:Wrd-1 X=of,
13:u:wrd-1LL=the,
19:u:wrd-1 L=vagueries,
12:u:wrd-1 X=of,
13:u:wrd-1 R=bus,
20:u:wrd-1RR=scheduling,
13:*:Pos-1LL=the,
19:*:Pos-1 L=vagueries,
12:*:Pos-1 X=of,
13:*:Pos-1 R=bus,
20:*:Pos-1RR=scheduling,
13:u:Wrd-1 X=bus,
19:u:wrd-1LL=vagueries,
12:u:wrd-1 L=of,
13:u:wrd-1 X=bus,
20:u:wrd-1 R=scheduling,
19:*:Pos-1LL=vagueries,
12:*:Pos-1 L=of,
13:*:Pos-1 X=bus,
20:*:Pos-1 R=scheduling,
20:u:Wrd-1 X=scheduling,
12:u:wrd-1LL=of,
13:u:wrd-1 L=bus,
20:u:wrd-1 X=scheduling,
13:u:wrd-1RR=but,
12:*:Pos-1LL=of,
13:*:Pos-1 L=bus,
20:*:Pos-1 X=scheduling,
13:*:Pos-1RR=but,
13:u:wrd-1LL=bus,
20:u:wrd-1 L=scheduling,
13:u:wrd-1 R=but,
11:u:wrd-1RR=i,
13:*:Pos-1LL=bus,
20:*:Pos-1 L=scheduling,
13:*:Pos-1 R=but,
11:*:Pos-1RR=I,
13:u:Wrd-1 X=but,
20:u:wrd-1LL=scheduling,
13:u:wrd-1 X=but,
11:u:wrd-1 R=i,
16:u:wrd-1RR=should,
20:*:Pos-1LL=scheduling,
13:*:Pos-1 X=but,
11:*:Pos-1 R=I,
16:*:Pos-1RR=should,
11:u:Wrd-1 X=I,
13:u:wrd-1 L=but,
11:u:wrd-1 X=i,
16:u:wrd-1 R=should,
13:*:Pos-1 L=but,
11:*:Pos-1 X=I,
16:*:Pos-1 R=should,
16:u:Wrd-1 X=should,
13:u:wrd-1LL=but,
11:u:wrd-1 L=i,
16:u:wrd-1 X=should,
12:u:wrd-1RR=in,
13:*:Pos-1LL=but,
11:*:Pos-1 L=I,
16:*:Pos-1 X=should,
12:*:Pos-1RR=in,
11:u:wrd-1LL=i,
16:u:wrd-1 L=should,
12:u:wrd-1 R=in,
12:u:wrd-1RR=by,
11:*:Pos-1LL=I,
16:*:Pos-1 L=should,
12:*:Pos-1 R=in,
12:*:Pos-1RR=by,
12:u:Wrd-1 X=in,
16:u:wrd-1LL=should,
12:u:wrd-1 X=in,
12:u:wrd-1 R=by,
16:*:Pos-1LL=should,
12:*:Pos-1 X=in,
12:*:Pos-1 R=by,
12:u:Wrd-1 X=by,
12:u:wrd-1 L=in,
12:u:wrd-1 X=by,
14:u:wrd-1RR=time,
12:*:Pos-1 L=in,
12:*:Pos-1 X=by,
14:*:Pos-1RR=time,
12:u:wrd-1LL=in,
12:u:wrd-1 L=by,
14:u:wrd-1 R=time,
12:u:wrd-1RR=we,
12:*:Pos-1LL=in,
12:*:Pos-1 L=by,
14:*:Pos-1 R=time,
12:*:Pos-1RR=we,
14:u:Wrd-1 X=time,
12:u:wrd-1LL=by,
14:u:wrd-1 X=time,
12:u:wrd-1 R=we,
15:u:wrd-1RR=start,
12:*:Pos-1LL=by,
14:*:Pos-1 X=time,
12:*:Pos-1 R=we,
15:*:Pos-1RR=start,
12:u:Wrd-1 X=we,
14:u:wrd-1 L=time,
12:u:wrd-1 X=we,
15:u:wrd-1 R=start,
14:*:Pos-1 L=time,
12:*:Pos-1 X=we,
15:*:Pos-1 R=start,
15:u:Wrd-1 X=start,
14:u:wrd-1LL=time,
12:u:wrd-1 L=we,
15:u:wrd-1 X=start,
18:u:wrd-1RR=poopdeck,
14:*:Pos-1LL=time,
12:*:Pos-1 L=we,
15:*:Pos-1 X=start,
18:*:Pos-1RR=poopdeck,
12:u:wrd-1LL=we,
15:u:wrd-1 L=start,
18:u:wrd-1 R=poopdeck,
15:u:wrd-1RR=retro,
12:*:Pos-1LL=we,
15:*:Pos-1 L=start,
18:*:Pos-1 R=poopdeck,
15:*:Pos-1RR=retro,
18:u:Wrd-1 X=poopdeck,
15:u:wrd-1LL=start,
18:u:wrd-1 X=poopdeck,
15:u:wrd-1 R=retro,
11:u:wrd-1RR=.,
15:*:Pos-1LL=start,
18:*:Pos-1 X=poopdeck,
15:*:Pos-1 R=retro,
11:*:Pos-1RR=.,
15:u:Wrd-1 X=retro,
18:u:wrd-1 L=poopdeck,
15:u:wrd-1 X=retro,
11:u:wrd-1 R=.,
14:u:wrd-1RR=_x+1,
18:*:Pos-1 L=poopdeck,
15:*:Pos-1 X=retro,
11:*:Pos-1 R=.,
14:*:Pos-1RR=_x+1,
11:u:Wrd-1 X=.,
18:u:wrd-1LL=poopdeck,
15:u:wrd-1 L=retro,
11:u:wrd-1 X=.,
14:u:wrd-1 R=_x+1,
14:u:wrd-1RR=_x+2,
18:*:Pos-1LL=poopdeck,
15:*:Pos-1 L=retro,
11:*:Pos-1 X=.,
14:*:Pos-1 R=_x+1,
14:*:Pos-1RR=_x+2,
19:u:wrd-1RR=wednesday,
19:*:Pos-1RR=Wednesday,
19:u:wrd-1 R=wednesday,
19:u:wrd-1RR=lunchtime,
19:*:Pos-1 R=Wednesday,
19:*:Pos-1RR=Lunchtime,
19:u:Wrd-1 X=Wednesday,
19:u:wrd-1 X=wednesday,
19:u:wrd-1 R=lunchtime,
19:*:Pos-1 X=Wednesday,
19:*:Pos-1 R=Lunchtime,
19:u:Wrd-1 X=Lunchtime,
19:u:wrd-1 L=wednesday,
19:u:wrd-1 X=lunchtime,
13:u:wrd-1RR=i'm,
19:*:Pos-1 L=Wednesday,
19:*:Pos-1 X=Lunchtime,
13:*:Pos-1RR=I'm,
19:u:wrd-1LL=wednesday,
19:u:wrd-1 L=lunchtime,
13:u:wrd-1 R=i'm,
15:u:wrd-1RR=going,
19:*:Pos-1LL=Wednesday,
19:*:Pos-1 L=Lunchtime,
13:*:Pos-1 R=I'm,
15:*:Pos-1RR=going,
13:u:Wrd-1 X=I'm,
19:u:wrd-1LL=lunchtime,
13:u:wrd-1 X=i'm,
15:u:wrd-1 R=going,
19:*:Pos-1LL=Lunchtime,
13:*:Pos-1 X=I'm,
15:*:Pos-1 R=going,
15:u:Wrd-1 X=going,
13:u:wrd-1 L=i'm,
15:u:wrd-1 X=going,
14:u:wrd-1RR=meet,
13:*:Pos-1 L=I'm,
15:*:Pos-1 X=going,
14:*:Pos-1RR=meet,
13:u:wrd-1LL=i'm,
15:u:wrd-1 L=going,
14:u:wrd-1 R=meet,
13:*:Pos-1LL=I'm,
15:*:Pos-1 L=going,
14:*:Pos-1 R=meet,
14:u:Wrd-1 X=meet,
15:u:wrd-1LL=going,
14:u:wrd-1 X=meet,
15:u:wrd-1RR=folks,
15:*:Pos-1LL=going,
14:*:Pos-1 X=meet,
15:*:Pos-1RR=folks,
14:u:wrd-1 L=meet,
15:u:wrd-1 R=folks,
13:u:wrd-1RR=who,
14:*:Pos-1 L=meet,
15:*:Pos-1 R=folks,
13:*:Pos-1RR=who,
15:u:Wrd-1 X=folks,
14:u:wrd-1LL=meet,
15:u:wrd-1 X=folks,
13:u:wrd-1 R=who,
13:u:wrd-1RR=are,
14:*:Pos-1LL=meet,
15:*:Pos-1 X=folks,
13:*:Pos-1 R=who,
13:*:Pos-1RR=are,
13:u:Wrd-1 X=who,
15:u:wrd-1 L=folks,
13:u:wrd-1 X=who,
13:u:wrd-1 R=are,
17:u:wrd-1RR=working,
15:*:Pos-1 L=folks,
13:*:Pos-1 X=who,
13:*:Pos-1 R=are,
17:*:Pos-1RR=working,
13:u:Wrd-1 X=are,
15:u:wrd-1LL=folks,
13:u:wrd-1 L=who,
13:u:wrd-1 X=are,
17:u:wrd-1 R=working,
15:*:Pos-1LL=folks,
13:*:Pos-1 L=who,
13:*:Pos-1 X=are,
17:*:Pos-1 R=working,
17:u:Wrd-1 X=working,
13:u:wrd-1LL=who,
13:u:wrd-1 L=are,
17:u:wrd-1 X=working,
12:u:wrd-1RR=my,
13:*:Pos-1LL=who,
13:*:Pos-1 L=are,
17:*:Pos-1 X=working,
12:*:Pos-1RR=my,
13:u:wrd-1LL=are,
17:u:wrd-1 L=working,
12:u:wrd-1 R=my,
13:u:wrd-1RR=old,
13:*:Pos-1LL=are,
17:*:Pos-1 L=working,
12:*:Pos-1 R=my,
13:*:Pos-1RR=old,
12:u:Wrd-1 X=my,
17:u:wrd-1LL=working,
12:u:wrd-1 X=my,
13:u:wrd-1 R=old,
17:u:wrd-1RR=project,
17:*:Pos-1LL=working,
12:*:Pos-1 X=my,
13:*:Pos-1 R=old,
17:*:Pos-1RR=project,
13:u:Wrd-1 X=old,
12:u:wrd-1 L=my,
13:u:wrd-1 X=old,
17:u:wrd-1 R=project,
12:*:Pos-1 L=my,
13:*:Pos-1 X=old,
17:*:Pos-1 R=project,
17:u:Wrd-1 X=project,
12:u:wrd-1LL=my,
13:u:wrd-1 L=old,
17:u:wrd-1 X=project,
13:u:wrd-1RR=wid,
12:*:Pos-1LL=my,
13:*:Pos-1 L=old,
17:*:Pos-1 X=project,
13:*:Pos-1RR=WID,
13:u:wrd-1LL=old,
17:u:wrd-1 L=project,
13:u:wrd-1 R=wid,
14:u:wrd-1RR=over,
13:*:Pos-1LL=old,
17:*:Pos-1 L=project,
13:*:Pos-1 R=WID,
14:*:Pos-1RR=over,
13:u:Wrd-1 X=WID,
17:u:wrd-1LL=project,
13:u:wrd-1 X=wid,
14:u:wrd-1 R=over,
15:u:wrd-1RR=lunch,
17:*:Pos-1LL=project,
13:*:Pos-1 X=WID,
14:*:Pos-1 R=over,
15:*:Pos-1RR=lunch,
14:u:Wrd-1 X=over,
13:u:wrd-1 L=wid,
14:u:wrd-1 X=over,
15:u:wrd-1 R=lunch,
13:*:Pos-1 L=WID,
14:*:Pos-1 X=over,
15:*:Pos-1 R=lunch,
15:u:Wrd-1 X=lunch,
13:u:wrd-1LL=wid,
14:u:wrd-1 L=over,
15:u:wrd-1 X=lunch,
13:*:Pos-1LL=WID,
14:*:Pos-1 L=over,
15:*:Pos-1 X=lunch,
14:u:wrd-1LL=over,
15:u:wrd-1 L=lunch,
14:*:Pos-1LL=over,
15:*:Pos-1 L=lunch,
15:u:wrd-1LL=lunch,
15:*:Pos-1LL=lunch,
17:u:wrd-1RR=leaving,
17:*:Pos-1RR=leaving,
17:u:wrd-1 R=leaving,
17:*:Pos-1 R=leaving,
17:u:Wrd-1 X=leaving,
17:u:wrd-1 X=leaving,
16:u:wrd-1RR=little,
17:*:Pos-1 X=leaving,
16:*:Pos-1RR=little,
17:u:wrd-1 L=leaving,
16:u:wrd-1 R=little,
15:u:wrd-1RR=early,
17:*:Pos-1 L=leaving,
16:*:Pos-1 R=little,
15:*:Pos-1RR=early,
16:u:Wrd-1 X=little,
17:u:wrd-1LL=leaving,
16:u:wrd-1 X=little,
15:u:wrd-1 R=early,
12:u:wrd-1RR=so,
17:*:Pos-1LL=leaving,
16:*:Pos-1 X=little,
15:*:Pos-1 R=early,
12:*:Pos-1RR=so,
15:u:Wrd-1 X=early,
16:u:wrd-1 L=little,
15:u:wrd-1 X=early,
12:u:wrd-1 R=so,
16:*:Pos-1 L=little,
15:*:Pos-1 X=early,
12:*:Pos-1 R=so,
12:u:Wrd-1 X=so,
16:u:wrd-1LL=little,
15:u:wrd-1 L=early,
12:u:wrd-1 X=so,
13:u:wrd-1RR=can,
16:*:Pos-1LL=little,
15:*:Pos-1 L=early,
12:*:Pos-1 X=so,
13:*:Pos-1RR=can,
15:u:wrd-1LL=early,
12:u:wrd-1 L=so,
13:u:wrd-1 R=can,
13:u:wrd-1RR=get,
15:*:Pos-1LL=early,
12:*:Pos-1 L=so,
13:*:Pos-1 R=can,
13:*:Pos-1RR=get,
13:u:Wrd-1 X=can,
12:u:wrd-1LL=so,
13:u:wrd-1 X=can,
13:u:wrd-1 R=get,
12:*:Pos-1LL=so,
13:*:Pos-1 X=can,
13:*:Pos-1 R=get,
13:u:Wrd-1 X=get,
13:u:wrd-1 L=can,
13:u:wrd-1 X=get,
13:*:Pos-1 L=can,
13:*:Pos-1 X=get,
13:u:wrd-1LL=can,
13:u:wrd-1 L=get,
13:*:Pos-1LL=can,
13:*:Pos-1 L=get,
13:u:wrd-1LL=get,
13:*:Pos-1LL=get,
15:u:wrd-1RR=union,
15:*:Pos-1RR=Union,
15:u:wrd-1 R=union,
15:u:wrd-1RR=south,
15:*:Pos-1 R=Union,
15:*:Pos-1RR=South,
15:u:Wrd-1 X=Union,
15:u:wrd-1 X=union,
15:u:wrd-1 R=south,
15:*:Pos-1 X=Union,
15:*:Pos-1 R=South,
15:u:Wrd-1 X=South,
15:u:wrd-1 L=union,
15:u:wrd-1 X=south,
15:*:Pos-1 L=Union,
15:*:Pos-1 X=South,
15:u:wrd-1LL=union,
15:u:wrd-1 L=south,
15:*:Pos-1LL=Union,
15:*:Pos-1 L=South,
16:u:wrd-1RR=monday,
16:*:Pos-1RR=Monday,
16:u:wrd-1 R=monday,
19:u:wrd-1RR=afternoon,
16:*:Pos-1 R=Monday,
19:*:Pos-1RR=afternoon,
16:u:Wrd-1 X=Monday,
16:u:wrd-1 X=monday,
19:u:wrd-1 R=afternoon,
16:*:Pos-1 X=Monday,
19:*:Pos-1 R=afternoon,
19:u:Wrd-1 X=afternoon,
16:u:wrd-1 L=monday,
19:u:wrd-1 X=afternoon,
13:u:wrd-1RR=now,
16:*:Pos-1 L=Monday,
19:*:Pos-1 X=afternoon,
13:*:Pos-1RR=Now,
16:u:wrd-1LL=monday,
19:u:wrd-1 L=afternoon,
13:u:wrd-1 R=now,
14:u:wrd-1RR=that,
16:*:Pos-1LL=Monday,
19:*:Pos-1 L=afternoon,
13:*:Pos-1 R=Now,
14:*:Pos-1RR=that,
13:u:Wrd-1 X=Now,
19:u:wrd-1LL=afternoon,
13:u:wrd-1 X=now,
14:u:wrd-1 R=that,
19:*:Pos-1LL=afternoon,
13:*:Pos-1 X=Now,
14:*:Pos-1 R=that,
14:u:Wrd-1 X=that,
13:u:wrd-1 L=now,
14:u:wrd-1 X=that,
13:*:Pos-1 L=Now,
14:*:Pos-1 X=that,
13:u:wrd-1LL=now,
14:u:wrd-1 L=that,
18:u:wrd-1RR=caffeine,
13:*:Pos-1LL=Now,
14:*:Pos-1 L=that,
18:*:Pos-1RR=caffeine,
14:u:wrd-1LL=that,
18:u:wrd-1 R=caffeine,
18:u:wrd-1RR=infusion,
14:*:Pos-1LL=that,
18:*:Pos-1 R=caffeine,
18:*:Pos-1RR=infusion,
18:u:Wrd-1 X=caffeine,
18:u:wrd-1 X=caffeine,
18:u:wrd-1 R=infusion,
13:u:wrd-1RR=has,
18:*:Pos-1 X=caffeine,
18:*:Pos-1 R=infusion,
13:*:Pos-1RR=has,
18:u:Wrd-1 X=infusion,
18:u:wrd-1 L=caffeine,
18:u:wrd-1 X=infusion,
13:u:wrd-1 R=has,
14:u:wrd-1RR=worn,
18:*:Pos-1 L=caffeine,
18:*:Pos-1 X=infusion,
13:*:Pos-1 R=has,
14:*:Pos-1RR=worn,
13:u:Wrd-1 X=has,
18:u:wrd-1LL=caffeine,
18:u:wrd-1 L=infusion,
13:u:wrd-1 X=has,
14:u:wrd-1 R=worn,
13:u:wrd-1RR=off,
18:*:Pos-1LL=caffeine,
18:*:Pos-1 L=infusion,
13:*:Pos-1 X=has,
14:*:Pos-1 R=worn,
13:*:Pos-1RR=off,
14:u:Wrd-1 X=worn,
18:u:wrd-1LL=infusion,
13:u:wrd-1 L=has,
14:u:wrd-1 X=worn,
13:u:wrd-1 R=off,
18:*:Pos-1LL=infusion,
13:*:Pos-1 L=has,
14:*:Pos-1 X=worn,
13:*:Pos-1 R=off,
13:u:Wrd-1 X=off,
13:u:wrd-1LL=has,
14:u:wrd-1 L=worn,
13:u:wrd-1 X=off,
13:*:Pos-1LL=has,
14:*:Pos-1 L=worn,
13:*:Pos-1 X=off,
14:u:wrd-1LL=worn,
13:u:wrd-1 L=off,
17:u:wrd-1RR=feeling,
14:*:Pos-1LL=worn,
13:*:Pos-1 L=off,
17:*:Pos-1RR=feeling,
13:u:wrd-1LL=off,
17:u:wrd-1 R=feeling,
16:u:wrd-1RR=pretty,
13:*:Pos-1LL=off,
17:*:Pos-1 R=feeling,
16:*:Pos-1RR=pretty,
17:u:Wrd-1 X=feeling,
17:u:wrd-1 X=feeling,
16:u:wrd-1 R=pretty,
16:u:wrd-1RR=crappy,
17:*:Pos-1 X=feeling,
16:*:Pos-1 R=pretty,
16:*:Pos-1RR=crappy,
16:u:Wrd-1 X=pretty,
17:u:wrd-1 L=feeling,
16:u:wrd-1 X=pretty,
16:u:wrd-1 R=crappy,
13:u:wrd-1RR=and,
17:*:Pos-1 L=feeling,
16:*:Pos-1 X=pretty,
16:*:Pos-1 R=crappy,
13:*:Pos-1RR=and,
16:u:Wrd-1 X=crappy,
17:u:wrd-1LL=feeling,
16:u:wrd-1 L=pretty,
16:u:wrd-1 X=crappy,
13:u:wrd-1 R=and,
19:u:wrd-1RR=lethargic,
17:*:Pos-1LL=feeling,
16:*:Pos-1 L=pretty,
16:*:Pos-1 X=crappy,
13:*:Pos-1 R=and,
19:*:Pos-1RR=lethargic,
13:u:Wrd-1 X=and,
16:u:wrd-1LL=pretty,
16:u:wrd-1 L=crappy,
13:u:wrd-1 X=and,
19:u:wrd-1 R=lethargic,
15:u:wrd-1RR=again,
16:*:Pos-1LL=pretty,
16:*:Pos-1 L=crappy,
13:*:Pos-1 X=and,
19:*:Pos-1 R=lethargic,
15:*:Pos-1RR=again,
19:u:Wrd-1 X=lethargic,
16:u:wrd-1LL=crappy,
13:u:wrd-1 L=and,
19:u:wrd-1 X=lethargic,
15:u:wrd-1 R=again,
16:*:Pos-1LL=crappy,
13:*:Pos-1 L=and,
19:*:Pos-1 X=lethargic,
15:*:Pos-1 R=again,
15:u:Wrd-1 X=again,
13:u:wrd-1LL=and,
19:u:wrd-1 L=lethargic,
15:u:wrd-1 X=again,
13:*:Pos-1LL=and,
19:*:Pos-1 L=lethargic,
15:*:Pos-1 X=again,
19:u:wrd-1LL=lethargic,
15:u:wrd-1 L=again,
19:*:Pos-1LL=lethargic,
15:*:Pos-1 L=again,
15:u:wrd-1LL=again,
15:*:Pos-1LL=again,
19:u:wrd-1RR=surrender,
19:*:Pos-1RR=surrender,
19:u:wrd-1 R=surrender,
19:*:Pos-1 R=surrender,
19:u:Wrd-1 X=surrender,
19:u:wrd-1 X=surrender,
19:*:Pos-1 X=surrender,
19:u:wrd-1 L=surrender,
15:u:wrd-1RR=virus,
19:*:Pos-1 L=surrender,
15:*:Pos-1RR=virus,
19:u:wrd-1LL=surrender,
15:u:wrd-1 R=virus,
19:*:Pos-1LL=surrender,
15:*:Pos-1 R=virus,
15:u:Wrd-1 X=virus,
15:u:wrd-1 X=virus,
12:u:wrd-1RR=go,
15:*:Pos-1 X=virus,
12:*:Pos-1RR=go,
15:u:wrd-1 L=virus,
12:u:wrd-1 R=go,
14:u:wrd-1RR=home,
15:*:Pos-1 L=virus,
12:*:Pos-1 R=go,
14:*:Pos-1RR=home,
12:u:Wrd-1 X=go,
15:u:wrd-1LL=virus,
12:u:wrd-1 X=go,
14:u:wrd-1 R=home,
15:*:Pos-1LL=virus,
12:*:Pos-1 X=go,
14:*:Pos-1 R=home,
14:u:Wrd-1 X=home,
12:u:wrd-1 L=go,
14:u:wrd-1 X=home,
12:*:Pos-1 L=go,
14:*:Pos-1 X=home,
12:u:wrd-1LL=go,
14:u:wrd-1 L=home,
12:*:Pos-1LL=go,
14:*:Pos-1 L=home,
13:u:wrd-1RR=for,
13:*:Pos-1RR=for,
13:u:wrd-1 R=for,
13:*:Pos-1 R=for,
13:u:Wrd-1 X=for,
13:u:wrd-1 X=for,
13:*:Pos-1 X=for,
14:u:wrd-1LL=home,
13:u:wrd-1 L=for,
14:*:Pos-1LL=home,
13:*:Pos-1 L=for,
13:u:wrd-1LL=for,
13:*:Pos-1LL=for,
11:u:wrd-1 L=.,
18:u:wrd-1RR=tracking,
11:*:Pos-1 L=.,
18:*:Pos-1RR=tracking,
11:u:wrd-1LL=.,
18:u:wrd-1 R=tracking,
14:u:wrd-1RR=down,
11:*:Pos-1LL=.,
18:*:Pos-1 R=tracking,
14:*:Pos-1RR=down,
18:u:Wrd-1 X=tracking,
18:u:wrd-1 X=tracking,
14:u:wrd-1 R=down,
14:u:wrd-1RR=some,
18:*:Pos-1 X=tracking,
14:*:Pos-1 R=down,
14:*:Pos-1RR=some,
14:u:Wrd-1 X=down,
18:u:wrd-1 L=tracking,
14:u:wrd-1 X=down,
14:u:wrd-1 R=some,
19:u:wrd-1RR=weirdness,
18:*:Pos-1 L=tracking,
14:*:Pos-1 X=down,
14:*:Pos-1 R=some,
19:*:Pos-1RR=weirdness,
14:u:Wrd-1 X=some,
18:u:wrd-1LL=tracking,
14:u:wrd-1 L=down,
14:u:wrd-1 X=some,
19:u:wrd-1 R=weirdness,
15:u:wrd-1RR=steve,
18:*:Pos-1LL=tracking,
14:*:Pos-1 L=down,
14:*:Pos-1 X=some,
19:*:Pos-1 R=weirdness,
15:*:Pos-1RR=Steve,
19:u:Wrd-1 X=weirdness,
14:u:wrd-1LL=down,
14:u:wrd-1 L=some,
19:u:wrd-1 X=weirdness,
15:u:wrd-1 R=steve,
14:*:Pos-1LL=down,
14:*:Pos-1 L=some,
19:*:Pos-1 X=weirdness,
15:*:Pos-1 R=Steve,
15:u:Wrd-1 X=Steve,
14:u:wrd-1LL=some,
19:u:wrd-1 L=weirdness,
15:u:wrd-1 X=steve,
14:*:Pos-1LL=some,
19:*:Pos-1 L=weirdness,
15:*:Pos-1 X=Steve,
19:u:wrd-1LL=weirdness,
15:u:wrd-1 L=steve,
13:u:wrd-1RR=ran,
19:*:Pos-1LL=weirdness,
15:*:Pos-1 L=Steve,
13:*:Pos-1RR=ran,
15:u:wrd-1LL=steve,
13:u:wrd-1 R=ran,
14:u:wrd-1RR=into,
15:*:Pos-1LL=Steve,
13:*:Pos-1 R=ran,
14:*:Pos-1RR=into,
13:u:Wrd-1 X=ran,
13:u:wrd-1 X=ran,
14:u:wrd-1 R=into,
14:u:wrd-1RR=this,
13:*:Pos-1 X=ran,
14:*:Pos-1 R=into,
14:*:Pos-1RR=this,
14:u:Wrd-1 X=into,
13:u:wrd-1 L=ran,
14:u:wrd-1 X=into,
14:u:wrd-1 R=this,
13:*:Pos-1 L=ran,
14:*:Pos-1 X=into,
14:*:Pos-1 R=this,
14:u:Wrd-1 X=this,
13:u:wrd-1LL=ran,
14:u:wrd-1 L=into,
14:u:wrd-1 X=this,
13:*:Pos-1LL=ran,
14:*:Pos-1 L=into,
14:*:Pos-1 X=this,
14:u:wrd-1LL=into,
14:u:wrd-1 L=this,
14:*:Pos-1LL=into,
14:*:Pos-1 L=this,
14:u:wrd-1LL=this,
14:*:Pos-1LL=this,
17:*:Pos-1RR=getting,
12:u:wrd-1RR=ci,
17:*:Pos-1 R=getting,
12:*:Pos-1RR=CI,
17:u:Wrd-1 X=getting,
12:u:wrd-1 R=ci,
13:u:wrd-1RR=set,
17:*:Pos-1 X=getting,
12:*:Pos-1 R=CI,
13:*:Pos-1RR=set,
12:u:Wrd-1 X=CI,
12:u:wrd-1 X=ci,
13:u:wrd-1 R=set,
12:u:wrd-1RR=up,
17:*:Pos-1 L=getting,
12:*:Pos-1 X=CI,
13:*:Pos-1 R=set,
12:*:Pos-1RR=up,
13:u:Wrd-1 X=set,
12:u:wrd-1 L=ci,
13:u:wrd-1 X=set,
12:u:wrd-1 R=up,
17:*:Pos-1LL=getting,
12:*:Pos-1 L=CI,
13:*:Pos-1 X=set,
12:*:Pos-1 R=up,
12:u:Wrd-1 X=up,
12:u:wrd-1LL=ci,
13:u:wrd-1 L=set,
12:u:wrd-1 X=up,
13:u:wrd-1RR=our,
12:*:Pos-1LL=CI,
13:*:Pos-1 L=set,
12:*:Pos-1 X=up,
13:*:Pos-1RR=our,
13:u:wrd-1LL=set,
12:u:wrd-1 L=up,
13:u:wrd-1 R=our,
18:u:wrd-1RR=internal,
13:*:Pos-1LL=set,
12:*:Pos-1 L=up,
13:*:Pos-1 R=our,
18:*:Pos-1RR=internal,
13:u:Wrd-1 X=our,
12:u:wrd-1LL=up,
13:u:wrd-1 X=our,
18:u:wrd-1 R=internal,
18:u:wrd-1RR=projects,
12:*:Pos-1LL=up,
13:*:Pos-1 X=our,
18:*:Pos-1 R=internal,
18:*:Pos-1RR=projects,
18:u:Wrd-1 X=internal,
13:u:wrd-1 L=our,
18:u:wrd-1 X=internal,
18:u:wrd-1 R=projects,
13:*:Pos-1 L=our,
18:*:Pos-1 X=internal,
18:*:Pos-1 R=projects,
18:u:Wrd-1 X=projects,
13:u:wrd-1LL=our,
18:u:wrd-1 L=internal,
18:u:wrd-1 X=projects,
13:*:Pos-1LL=our,
18:*:Pos-1 L=internal,
18:*:Pos-1 X=projects,
18:u:wrd-1LL=internal,
18:u:wrd-1 L=projects,
18:*:Pos-1LL=internal,
18:*:Pos-1 L=projects,
18:u:wrd-1LL=projects,
18:*:Pos-1LL=projects,
15:u:wrd-1RR=slack,
15:*:Pos-1RR=slack,
15:u:wrd-1 R=slack,
13:u:wrd-1RR=too,
15:*:Pos-1 R=slack,
13:*:Pos-1RR=too,
15:u:Wrd-1 X=slack,
15:u:wrd-1 X=slack,
13:u:wrd-1 R=too,
12:u:wrd-1RR=if,
15:*:Pos-1 X=slack,
13:*:Pos-1 R=too,
12:*:Pos-1RR=if,
13:u:Wrd-1 X=too,
15:u:wrd-1 L=slack,
13:u:wrd-1 X=too,
12:u:wrd-1 R=if,
16:u:wrd-1RR=anyone,
15:*:Pos-1 L=slack,
13:*:Pos-1 X=too,
12:*:Pos-1 R=if,
16:*:Pos-1RR=anyone,
12:u:Wrd-1 X=if,
15:u:wrd-1LL=slack,
13:u:wrd-1 L=too,
12:u:wrd-1 X=if,
16:u:wrd-1 R=anyone,
15:*:Pos-1LL=slack,
13:*:Pos-1 L=too,
12:*:Pos-1 X=if,
16:*:Pos-1 R=anyone,
16:u:Wrd-1 X=anyone,
13:u:wrd-1LL=too,
12:u:wrd-1 L=if,
16:u:wrd-1 X=anyone,
19:u:wrd-1RR=questions,
13:*:Pos-1LL=too,
12:*:Pos-1 L=if,
16:*:Pos-1 X=anyone,
19:*:Pos-1RR=questions,
12:u:wrd-1LL=if,
16:u:wrd-1 L=anyone,
19:u:wrd-1 R=questions,
12:*:Pos-1LL=if,
16:*:Pos-1 L=anyone,
19:*:Pos-1 R=questions,
19:u:Wrd-1 X=questions,
16:u:wrd-1LL=anyone,
19:u:wrd-1 X=questions,
12:u:wrd-1RR=me,
16:*:Pos-1LL=anyone,
19:*:Pos-1 X=questions,
12:*:Pos-1RR=me,
19:u:wrd-1 L=questions,
12:u:wrd-1 R=me,
11:u:wrd-1RR=!,
19:*:Pos-1 L=questions,
12:*:Pos-1 R=me,
11:*:Pos-1RR=!,
12:u:Wrd-1 X=me,
19:u:wrd-1LL=questions,
12:u:wrd-1 X=me,
11:u:wrd-1 R=!,
19:*:Pos-1LL=questions,
12:*:Pos-1 X=me,
11:*:Pos-1 R=!,
11:u:Wrd-1 X=!,
12:u:wrd-1 L=me,
11:u:wrd-1 X=!,
12:*:Pos-1 L=me,
11:*:Pos-1 X=!,
0=0x1.8e33a2fd6f873p-1
7=0x1.649ba3ca2f3b9p+1
9=-0x1.2f70aa59ced81p-2
10=0x1.3ff183c62bab4p-1
11=-0x1.18e198a96e26ap-1
13=-0x1.28d0517f465e6p-1
14=-0x1.2411b2b574844p-4
16=0x1.62c86b80a3b35p-1
32=0x1.633c56ca7b32bp-3
33=0x1.3051b39edff61p-3
39=0x1.789729c0cd9f8p-3
42=-0x1.7e3a41f946bbap-2
48=0x1.3790408464fc4p+1
55=0x1.a0bf58ff293c5p-1
56=0x1.ff2aa1401e44fp-7
63=0x1.ff2aa1401e44fp-7
70=0x1.ff2aa1401e44fp-7
77=0x1.ff2aa1401e44fp-7
84=0x1.ff2aa1401e44fp-7
91=0x1.ff2aa1401e44fp-7
98=0x1.ff2aa1401e44fp-7
154=0x1.ff2aa1401e44fp-7
210=0x1.ff2aa1401e44fp-7
266=0x1.ff2aa1401e44fp-7
322=0x1.ff2aa1401e44fp-7
427=0x1.9db34b476cac9p-4
483=0x1.9db34b476cac9p-4
539=0x1.9db34b476cac9p-4
595=0x1.9db34b476cac9p-4
1030=0x1.7d4053704c1f6p-2
1037=0x1.7d4053704c1f6p-2
1057=-0x1.5f4b2ac1a7bc4p-3
1058=0x1.ac0cf56353dp-2
1065=0x1.7d4053704c1f6p-2
1072=0x1.1a00808ffa04ep-1
1121=0x1.7d4053704c1f6p-2
1128=0x1.1a00808ffa04ep-1
1288=-0x1.5f4b2ac1a7bc4p-3
1289=0x1.ac0cf56353dp-2
1296=0x1.45f98f5256a32p-1
1351=-0x1.3b477e8fd034p-6
1353=0x1.fad0569251885p-2
1372=-0x1.4a6d7c9aa700ap-3
1374=0x1.56bb2559f6369p-1
1386=-0x1.3b477e8fd034p-6
1388=0x1.fad0569251885p-2
1402=0x1.12d9e18df7729p+0
1554=-0x1.4a6d7c9aa700ap-3
1556=0x1.56bb2559f6369p-1
1570=0x1.1fe33b9565759p+0
1827=-0x1.e0a2db06b7055p-4
1841=0x1.f861abad73e4fp+0
1991=0x1.8ced0875755acp-3
1998=0x1.3c8e11117c114p-3
2005=0x1.27297d85da71dp-3
2012=0x1.71e04121d0a82p-3
2019=0x1.e0d54e792639p-4
2026=0x1.8ced0875755acp-3
2033=0x1.3c8e11117c114p-3
2040=0x1.4830bcb19d5e7p-2
2089=0x1.27297d85da71dp-3
2096=0x1.465f0592e8dfcp-2
2145=0x1.8ced0875755acp-3
2152=0x1.635ddb03cc347p-2
2201=0x1.e0d54e792639p-4
2208=0x1.3adffe392b5fp-2
2257=0x1.8ced0875755acp-3
2264=0x1.635ddb03cc347p-2
2314=0x1.7f6a7373e3986p-4
2321=0x1.1a62b5e6426e9p-3
2328=0x1.404c9d78f1691p-3
2335=0x1.7f6a7373e3986p-4
2342=0x1.5d8adab16e246p-3
2349=0x1.35e040b74fb86p-3
2356=0x1.1a62b5e6426e9p-3
2384=0x1.b1a41a14861bbp-2
2412=0x1.5d8adab16e246p-3
2440=0x1.b443964a7e90cp-2
2468=0x1.7f6a7373e3986p-4
2496=0x1.afec74aa81b5ap-2
2524=0x1.5d8adab16e246p-3
2552=0x1.b443964a7e90cp-2
2580=0x1.35e040b74fb86p-3
2608=0x1.b3311ea2c27d2p-2
2636=0x1.82a5bfbd9ca69p-3
2643=0x1.677d5dcc5fbd7p-3
2650=0x1.f5d9cfad11d42p-4
2657=0x1.82a5bfbd9ca69p-3
2664=0x1.528b4a7298933p-3
2671=0x1.82a5bfbd9ca69p-3
2678=0x1.82a5bfbd9ca69p-3
2713=0x1.cda71fb714f84p-2
2734=0x1.f5d9cfad11d42p-4
2769=0x1.c937fb4cf3394p-2
2790=0x1.82a5bfbd9ca69p-3
2825=0x1.cda71fb714f84p-2
2846=0x1.528b4a7298933p-3
2881=0x1.cc005e028b0d5p-2
2902=0x1.82a5bfbd9ca69p-3
2937=0x1.cda71fb714f84p-2
3031=0x1.69cf0144c114bp-2
3087=0x1.e43e28c8ab36bp-2
3143=0x1.d62963a2ad734p-2
3199=0x1.e43e28c8ab36bp-2
3227=-0x1.380bc205a0d68p+0
3248=0x1.dce394ff407b1p-3
3255=0x1.679466dbfafabp-2
3290=-0x1.1bb104829b84dp-1
3293=0x1.0088cfd37636fp-4
3309=0x1.71d506684e87ep-2
3367=-0x1.1bb104829b84dp-1
3370=0x1.0088cfd37636fp-4
3374=-0x1.f5aac3090c4c8p-2
3377=0x1.0ef23ccc8643fp-3
3484=0x1.71d506684e87ep-2
3491=0x1.b26fc6715d2b2p+0
3577=-0x1.bd9598a66c6e3p-3
3598=0x1.3304b49412f4dp-2
3730=0x1.8ed95011a203bp-1
3786=0x1.95d051b1565eep-1
3815=-0x1.30b0c9bb2966ep-2
3821=0x1.6ad6646f27d4ep-1
3933=0x1.3738ccef6db5ap-3
3989=0x1.258dc77711c88p-3
3990=-0x1.30b0c9bb2966ep-2
3996=0x1.6ad6646f27d4ep-1
3997=-0x1.3c7c5326b2498p-7
4045=0x1.10538afb44881p+2
4200=-0x1.794b54013dd11p-3
4242=0x1.52ca679d9ff9cp+0
4347=0x1.24130d2ab8ef5p-7
4557=0x1.040a586b7aea3p-2
6212=0x1.3beef773afdb8p-4
6443=0x1.3beef773afdb8p-4
6450=0x1.2150dc05faffcp-3
6739=0x1.ab335e0d64ca7p-2
7020=0x1.a089e4b1ad2fap-4
11381=0x1.bbf18bc4a1921p-4
11591=0x1.ab350f1abb4p-14
11648=0x1.fb85fca047774p-11
11669=0x1.fb85fca047774p-11
11676=0x1.28aeb2d54a10ep-5
11683=0x1.28aeb2d54a10ep-5
11802=0x1.fb85fca047774p-11
11858=0x1.28aeb2d54a10ep-5
11865=0x1.eb306d723c016p-3
11914=0x1.28aeb2d54a10ep-5
11921=0x1.eb306d723c016p-3
15963=0x1.09a0fc0eb69fdp-3
15970=0x1.09a0fc0eb69fdp-3
15977=0x1.09a0fc0eb69fdp-3
15984=0x1.620e1c47d4ffap-4
15991=0x1.09a0fc0eb69fdp-3
15998=0x1.09a0fc0eb69fdp-3
16005=0x1.26470494d1383p-3
16054=0x1.09a0fc0eb69fdp-3
16061=0x1.26470494d1383p-3
16110=0x1.620e1c47d4ffap-4
16117=0x1.1f49a6fa2b1c2p-3
16166=0x1.09a0fc0eb69fdp-3
16173=0x1.26470494d1383p-3
16275=0x1.38e57af6d5d7p-2
16331=0x1.30f40d85b021cp-2
16387=0x1.38e57af6d5d7p-2
19388=0x1.fc43a74eb491dp-6
19451=0x1.fc43a74eb491dp-6
19479=0x1.18cf9e63e89f2p-1
19516=-0x1.93ee958a6dbc9p-4
19579=-0x1.93ee958a6dbc9p-4
19627=0x1.cbdf8e4f6c4f1p-4
19774=0x1.f9c072fc4be3p-9
23768=0x1.a743359b3ca04p-4
23789=0x1.a743359b3ca04p-4
23796=0x1.1f0176bceb76ap-3
25109=-0x1.423ce13d979b5p-6
25112=0x1.0b55ff85cd265p-3
25116=-0x1.423ce13d979b5p-6
25119=0x1.0b55ff85cd265p-3
25123=-0x1.423ce13d979b5p-6
25126=0x1.0b55ff85cd265p-3
25130=-0x1.423ce13d979b5p-6
25133=0x1.0b55ff85cd265p-3
25140=0x1.48fa1b201ffecp-3
25186=-0x1.423ce13d979b5p-6
25189=0x1.0b55ff85cd265p-3
25196=0x1.48fa1b201ffecp-3
25289=0x1.aec3adefc82b1p-2
25345=0x1.aec3adefc82b1p-2
25431=-0x1.529560e9109bfp-5
25434=0x1.299df0b7d00ep-2
25438=-0x1.529560e9109bfp-5
25441=0x1.299df0b7d00ep-2
25448=0x1.89914bc1c2cap-2
25499=0x1.89756448266e2p-6
25506=0x1.89756448266e2p-6
25513=0x1.89756448266e2p-6
25541=0x1.17cf80647795fp-1
25626=0x1.d2a38448de2c8p-4
25682=0x1.c3f2eb269de5cp-4
25752=0x1.23f89f6fc8e8p-10
